<?xml version="1.0"?>
<opencv_storage>
<stage17>
  <maxWeakCount>8</maxWeakCount>
  <stageThreshold>-1.0863052606582642e+00</stageThreshold>
  <weakClassifiers>
    <_>
      <internalNodes>
        0 -1 74405 -3.4629347920417786e-01</internalNodes>
      <leafValues>
        4.6067416667938232e-01 -6.2711864709854126e-01</leafValues></_>
    <_>
      <internalNodes>
        0 -1 162133 -1.2217102572321892e-02</internalNodes>
      <leafValues>
        -2.9119649529457092e-01 6.1342483758926392e-01</leafValues></_>
    <_>
      <internalNodes>
        0 -1 157274 -1.2201804202049971e-03</internalNodes>
      <leafValues>
        -9.5656704902648926e-01 1.2472975254058838e-01</leafValues></_>
    <_>
      <internalNodes>
        0 -1 128978 2.2610460873693228e-03</internalNodes>
      <leafValues>
        1.6693691909313202e-01 -8.4634095430374146e-01</leafValues></_>
    <_>
      <internalNodes>
        0 -1 80775 3.8631114875897765e-05</internalNodes>
      <leafValues>
        -5.4088586568832397e-01 2.1397314965724945e-01</leafValues></_>
    <_>
      <internalNodes>
        0 -1 101144 -3.5267352359369397e-05</internalNodes>
      <leafValues>
        3.1198331713676453e-01 -4.1176795959472656e-01</leafValues></_>
    <_>
      <internalNodes>
        0 -1 13431 -1.8572558183223009e-03</internalNodes>
      <leafValues>
        4.1513156890869141e-01 -3.8532787561416626e-01</leafValues></_>
    <_>
      <internalNodes>
        0 -1 32328 1.3533508405089378e-02</internalNodes>
      <leafValues>
        1.5457364916801453e-01 -8.8254439830780029e-01</leafValues></_></weakClassifiers></stage17>
</opencv_storage>
