<?xml version="1.0"?>
<opencv_storage>
<stage11>
  <maxWeakCount>5</maxWeakCount>
  <stageThreshold>-1.0636733770370483e+00</stageThreshold>
  <weakClassifiers>
    <_>
      <internalNodes>
        0 -1 38382 -2.6008177548646927e-02</internalNodes>
      <leafValues>
        -7.1215879917144775e-01 6.9696968793869019e-01</leafValues></_>
    <_>
      <internalNodes>
        0 -1 161648 1.2241401709616184e-03</internalNodes>
      <leafValues>
        -4.1132989525794983e-01 7.3985385894775391e-01</leafValues></_>
    <_>
      <internalNodes>
        0 -1 70555 -2.7541155577637255e-04</internalNodes>
      <leafValues>
        7.1123218536376953e-01 -2.9946616291999817e-01</leafValues></_>
    <_>
      <internalNodes>
        0 -1 17194 -1.8919908907264471e-03</internalNodes>
      <leafValues>
        6.6017729043960571e-01 -3.3857682347297668e-01</leafValues></_>
    <_>
      <internalNodes>
        0 -1 148273 2.0572327775880694e-04</internalNodes>
      <leafValues>
        -2.9736998677253723e-01 6.9785827398300171e-01</leafValues></_></weakClassifiers></stage11>
</opencv_storage>
