<?xml version="1.0"?>
<opencv_storage>
<stage20>
  <maxWeakCount>10</maxWeakCount>
  <stageThreshold>-1.1955235004425049e+00</stageThreshold>
  <weakClassifiers>
    <_>
      <internalNodes>
        0 -1 128472 7.2282650507986546e-03</internalNodes>
      <leafValues>
        -6.5395891666412354e-01 3.1055901199579239e-02</leafValues></_>
    <_>
      <internalNodes>
        0 -1 151120 -2.0723068155348301e-03</internalNodes>
      <leafValues>
        2.2827558219432831e-01 -4.9402272701263428e-01</leafValues></_>
    <_>
      <internalNodes>
        0 -1 11051 1.9930149428546429e-03</internalNodes>
      <leafValues>
        -2.8490525484085083e-01 3.9350482821464539e-01</leafValues></_>
    <_>
      <internalNodes>
        0 -1 79687 3.0903476290404797e-03</internalNodes>
      <leafValues>
        1.3819666206836700e-01 -8.2163310050964355e-01</leafValues></_>
    <_>
      <internalNodes>
        0 -1 159741 -8.0524338409304619e-04</internalNodes>
      <leafValues>
        -5.6053203344345093e-01 1.8584752082824707e-01</leafValues></_>
    <_>
      <internalNodes>
        0 -1 161957 4.1884859092533588e-03</internalNodes>
      <leafValues>
        -2.1073846518993378e-01 5.6127279996871948e-01</leafValues></_>
    <_>
      <internalNodes>
        0 -1 148351 7.0797214284539223e-03</internalNodes>
      <leafValues>
        1.4098075032234192e-01 -8.3920997381210327e-01</leafValues></_>
    <_>
      <internalNodes>
        0 -1 128740 3.1170072034001350e-03</internalNodes>
      <leafValues>
        -2.6062893867492676e-01 5.4027587175369263e-01</leafValues></_>
    <_>
      <internalNodes>
        0 -1 8839 4.1682031005620956e-03</internalNodes>
      <leafValues>
        -1.7022404074668884e-01 6.5126550197601318e-01</leafValues></_>
    <_>
      <internalNodes>
        0 -1 35252 -7.2410054504871368e-02</internalNodes>
      <leafValues>
        7.3521059751510620e-01 -1.7002810537815094e-01</leafValues></_></weakClassifiers></stage20>
</opencv_storage>
