<?xml version="1.0"?>
<opencv_storage>
<stage12>
  <maxWeakCount>8</maxWeakCount>
  <stageThreshold>-1.4510126113891602e+00</stageThreshold>
  <weakClassifiers>
    <_>
      <internalNodes>
        0 -1 121329 -3.1547150574624538e-03</internalNodes>
      <leafValues>
        3.8931298255920410e-01 -7.2506737709045410e-01</leafValues></_>
    <_>
      <internalNodes>
        0 -1 8096 -2.2417557239532471e-01</internalNodes>
      <leafValues>
        5.4249429702758789e-01 -4.5901513099670410e-01</leafValues></_>
    <_>
      <internalNodes>
        0 -1 122125 2.3707221262156963e-03</internalNodes>
      <leafValues>
        -3.4332656860351563e-01 5.2909785509109497e-01</leafValues></_>
    <_>
      <internalNodes>
        0 -1 157397 5.6338449212489650e-05</internalNodes>
      <leafValues>
        -3.7907034158706665e-01 4.6894893050193787e-01</leafValues></_>
    <_>
      <internalNodes>
        0 -1 26220 4.8431761562824249e-02</internalNodes>
      <leafValues>
        -2.8166276216506958e-01 6.8479222059249878e-01</leafValues></_>
    <_>
      <internalNodes>
        0 -1 100143 -2.0497754216194153e-02</internalNodes>
      <leafValues>
        -8.9246988296508789e-01 2.3156543076038361e-01</leafValues></_>
    <_>
      <internalNodes>
        0 -1 100559 -3.6542318412102759e-05</internalNodes>
      <leafValues>
        3.1141400337219238e-01 -5.1078057289123535e-01</leafValues></_>
    <_>
      <internalNodes>
        0 -1 91350 1.1738566681742668e-02</internalNodes>
      <leafValues>
        1.9415014982223511e-01 -8.6485022306442261e-01</leafValues></_></weakClassifiers></stage12>
</opencv_storage>
